<?xml version="1.0"?>
<opencv_storage>
<cascade>
  <stageType>BOOST</stageType>
  <featureType>LBP</featureType>
  <height>20</height>
  <width>20</width>
  <stageParams>
    <boostType>GAB</boostType>
    <minHitRate>9.9750000238418579e-01</minHitRate>
    <maxFalseAlarm>5.0000000000000000e-01</maxFalseAlarm>
    <weightTrimRate>9.4999999999999996e-01</weightTrimRate>
    <maxDepth>1</maxDepth>
    <maxWeakCount>100</maxWeakCount></stageParams>
  <featureParams>
    <maxCatCount>256</maxCatCount>
    <featSize>1</featSize></featureParams>
  <stageNum>14</stageNum>
  <stages>
    <!-- stage 0 -->
    <_>
      <maxWeakCount>2</maxWeakCount>
      <stageThreshold>-6.1842650175094604e-02</stageThreshold>
      <weakClassifiers>
        <_>
          <internalNodes>
            0 -1 23 -2359425 -585649261 -786343634 -36188093 -930381650
            -1697939061 -358160182 -2099029</internalNodes>
          <leafValues>
            -9.6658229827880859e-01 9.4271606206893921e-01</leafValues></_>
        <_>
          <internalNodes>
            0 -1 19 -44171827 -41430397 -1056709885 -553397677
            -1060773749 -1870462845 -915945333 -33554433</internalNodes>
          <leafValues>
            -9.7497725486755371e-01 9.0473961830139160e-01</leafValues></_></weakClassifiers></_>
    <!-- stage 1 -->
    <_>
      <maxWeakCount>2</maxWeakCount>
      <stageThreshold>-1.5485008060932159e-01</stageThreshold>
      <weakClassifiers>
        <_>
          <internalNodes>
            0 -1 15 -35651585 -69747745 -1268024329 -524290 -638582785
            -339742409 -7349318 -772</internalNodes>
          <leafValues>
            -9.8158180713653564e-01 8.4122562408447266e-01</leafValues></_>
        <_>
          <internalNodes>
            0 -1 16 -673194001 -2361345 -115344929 -35916801 -220201238
            -742924609 -286265618 -17826053</internalNodes>
          <leafValues>
            -9.2659425735473633e-01 8.2673168182373047e-01</leafValues></_></weakClassifiers></_>
    <!-- stage 2 -->
    <_>
      <maxWeakCount>2</maxWeakCount>
      <stageThreshold>-1.7324970662593842e-01</stageThreshold>
      <weakClassifiers>
        <_>
          <internalNodes>
            0 -1 9 -33554433 -15745049 -142636034 -6292738 -657609845
            -68423733 -36175874 -4</internalNodes>
          <leafValues>
            -9.4133621454238892e-01 8.0268645286560059e-01</leafValues></_>
        <_>
          <internalNodes>
            0 -1 17 -34078753 -69994497 -146292737 -8391849 -268437537
            -4194817 -50336564 -33554705</internalNodes>
          <leafValues>
            -9.2556500434875488e-01 7.6808655261993408e-01</leafValues></_></weakClassifiers></_>
    <!-- stage 3 -->
    <_>
      <maxWeakCount>3</maxWeakCount>
      <stageThreshold>-9.8739576339721680e-01</stageThreshold>
      <weakClassifiers>
        <_>
          <internalNodes>
            0 -1 30 -1141899698 -80481529 -1941973465 -1089751105
            -85459969 -105143433 -1148453893 2147482619</internalNodes>
          <leafValues>
            -9.6130460500717163e-01 7.9370152950286865e-01</leafValues></_>
        <_>
          <internalNodes>
            0 -1 28 -856690961 -16790449 -8705 2130701439 -1 -769 -1
            -385</internalNodes>
          <leafValues>
            -7.3870158195495605e-01 8.8012158870697021e-01</leafValues></_>
        <_>
          <internalNodes>
            0 -1 6 -837757993 -1845815457 -1943824114 -68460550
            -1995504977 -779189425 -1970283553 -67371014</internalNodes>
          <leafValues>
            -8.6232089996337891e-01 7.1261042356491089e-01</leafValues></_></weakClassifiers></_>
    <!-- stage 4 -->
    <_>
      <maxWeakCount>3</maxWeakCount>
      <stageThreshold>-1.0535776615142822e+00</stageThreshold>
      <weakClassifiers>
        <_>
          <internalNodes>
            0 -1 34 -169 -2101929 -1197608609 -545271177 -111684865
            -90333032 2129656815 2147482607</internalNodes>
          <leafValues>
            -9.1086351871490479e-01 7.4149662256240845e-01</leafValues></_>
        <_>
          <internalNodes>
            0 -1 8 -1745625123 -212658347 -562856481 -1082166497
            -208462853 -1355612017 -16810081 -50331713</internalNodes>
          <leafValues>
            -8.2930332422256470e-01 7.3202347755432129e-01</leafValues></_>
        <_>
          <internalNodes>
            0 -1 39 -210241545 -37232249 1419867 2144323555 -646862105
            -930676137 728103915 1064825855</internalNodes>
          <leafValues>
            -7.8973877429962158e-01 6.8658918142318726e-01</leafValues></_></weakClassifiers></_>
    <!-- stage 5 -->
    <_>
      <maxWeakCount>3</maxWeakCount>
      <stageThreshold>-1.0062108039855957e+00</stageThreshold>
      <weakClassifiers>
        <_>
          <internalNodes>
            0 -1 27 -2098177 -572832513 -213392129 2136820943 -761792257
            2124032409 1493171199 2147449327</internalNodes>
          <leafValues>
            -8.5573768615722656e-01 7.2165900468826294e-01</leafValues></_>
        <_>
          <internalNodes>
            0 -1 0 -203444225 -137103757 -103678977 -801281 -103218753
            -67789573 -72811521 2147447163</internalNodes>
          <leafValues>
            -7.8758859634399414e-01 6.9101834297180176e-01</leafValues></_>
        <_>
          <internalNodes>
            0 -1 37 -71303169 -68437553 -921283679 -900205637 -70519961
            -1762666157 -821771453 2147480575</internalNodes>
          <leafValues>
            -8.2992553710937500e-01 6.3711541891098022e-01</leafValues></_></weakClassifiers></_>
    <!-- stage 6 -->
    <_>
      <maxWeakCount>2</maxWeakCount>
      <stageThreshold>-3.0541211366653442e-01</stageThreshold>
      <weakClassifiers>
        <_>
          <internalNodes>
            0 -1 35 -161 -14682273 -941890561 -9445665 -926287105
            -376471297 1791682815 2146429631</internalNodes>
          <leafValues>
            -8.7226492166519165e-01 6.3880467414855957e-01</leafValues></_>
        <_>
          <internalNodes>
            0 -1 12 -1157369345 -141568547 253737823 -1092833
            -1423236965 -90993729 -1413804033 -54526788</internalNodes>
          <leafValues>
            -8.9712804555892944e-01 5.6685280799865723e-01</leafValues></_></weakClassifiers></_>
    <!-- stage 7 -->
    <_>
      <maxWeakCount>3</maxWeakCount>
      <stageThreshold>-9.8033803701400757e-01</stageThreshold>
      <weakClassifiers>
        <_>
          <internalNodes>
            0 -1 19 -1107427889 -412893321 -1156705685 -1076907077
            -307254985 -1422922961 -140531785 -1143231581</internalNodes>
          <leafValues>
            -8.3522725105285645e-01 6.5625000000000000e-01</leafValues></_>
        <_>
          <internalNodes>
            0 -1 4 -786562049 -619118473 -251375105 -547450422
            -1316574977 -1682210629 -119545857 -68175281</internalNodes>
          <leafValues>
            -7.4096238613128662e-01 7.6630824804306030e-01</leafValues></_>
        <_>
          <internalNodes>
            0 -1 33 -202377238 -216667185 -1018963478 -250391697
            -93326991 -1312584753 -88083469 2146172927</internalNodes>
          <leafValues>
            -8.8654261827468872e-01 5.9585160017013550e-01</leafValues></_></weakClassifiers></_>
    <!-- stage 8 -->
    <_>
      <maxWeakCount>2</maxWeakCount>
      <stageThreshold>-2.8963455557823181e-01</stageThreshold>
      <weakClassifiers>
        <_>
          <internalNodes>
            0 -1 13 -775564881 -539522609 -1862188754 -33561649
            -715945921 -1861252607 -89601345 2144271358</internalNodes>
          <leafValues>
            -8.7234044075012207e-01 5.5247038602828979e-01</leafValues></_>
        <_>
          <internalNodes>
            0 -1 10 -67108867 -68946599 -1332243465 2130946491
            -487849985 -5396287 2059504559 1806434299</internalNodes>
          <leafValues>
            -7.9213976860046387e-01 5.8270585536956787e-01</leafValues></_></weakClassifiers></_>
    <!-- stage 9 -->
    <_>
      <maxWeakCount>4</maxWeakCount>
      <stageThreshold>-5.6715381145477295e-01</stageThreshold>
      <weakClassifiers>
        <_>
          <internalNodes>
            0 -1 1 -753217025 -741607521 17114399 1157743615 1210241711
            -664618881 -1285824353 1399062527</internalNodes>
          <leafValues>
            -7.8268253803253174e-01 6.1934614181518555e-01</leafValues></_>
        <_>
          <internalNodes>
            0 -1 26 -159918850 -749514409 -1575490822 -1147154025
            -947135233 -108280611 -205793793 -12583957</internalNodes>
          <leafValues>
            -8.1638824939727783e-01 5.8499467372894287e-01</leafValues></_>
        <_>
          <internalNodes>
            0 -1 18 -186683137 -271617541 -1347730469 -5308021
            -292821523 -282898296 -33132545 2146137583</internalNodes>
          <leafValues>
            -8.6968684196472168e-01 5.2023541927337646e-01</leafValues></_>
        <_>
          <internalNodes>
            0 -1 3 -753991425 -611957286 1382504286 -158427006
            -1821965893 -1089795960 -1014252817 -67111985</internalNodes>
          <leafValues>
            -8.6577457189559937e-01 5.1168155670166016e-01</leafValues></_></weakClassifiers></_>
    <!-- stage 10 -->
    <_>
      <maxWeakCount>5</maxWeakCount>
      <stageThreshold>-1.3085427284240723e+00</stageThreshold>
      <weakClassifiers>
        <_>
          <internalNodes>
            0 -1 22 -33554433 -67806243 1363953887 2112836095
            -1042339345 1878860287 2091318783 2147450875</internalNodes>
          <leafValues>
            -8.6771446466445923e-01 5.3578650951385498e-01</leafValues></_>
        <_>
          <internalNodes>
            0 -1 21 -751258667 -103825197 -2029537953 -239627873
            -1752123532 -609255201 -69545380 -50374305</internalNodes>
          <leafValues>
            -7.3697847127914429e-01 5.8101129531860352e-01</leafValues></_>
        <_>
          <internalNodes>
            0 -1 32 -526337 -490023010 285692435 2026698075 1499819045
            134942379 1138731919 1207955423</internalNodes>
          <leafValues>
            -8.6988180875778198e-01 4.7864842414855957e-01</leafValues></_>
        <_>
          <internalNodes>
            0 -1 41 -1212416070 51019904 1163161937 -136658903
            -958678789 -737435514 -887888967 -69745695</internalNodes>
          <leafValues>
            -7.1181422472000122e-01 6.4970624446868896e-01</leafValues></_>
        <_>
          <internalNodes>
            0 -1 14 -99098881 -1087455 391447647 1461653789 -2144696085
            -1842773632 1785310911 528424443</internalNodes>
          <leafValues>
            -7.8867375850677490e-01 5.4025870561599731e-01</leafValues></_></weakClassifiers></_>
    <!-- stage 11 -->
    <_>
      <maxWeakCount>4</maxWeakCount>
      <stageThreshold>-1.6506652832031250e+00</stageThreshold>
      <weakClassifiers>
        <_>
          <internalNodes>
            0 -1 31 -513 -1 -1718374401 -2387009 -72877665 -69 -33690146
            -321077345</internalNodes>
          <leafValues>
            -6.5632694959640503e-01 6.7699337005615234e-01</leafValues></_>
        <_>
          <internalNodes>
            0 -1 36 -71303177 -49302777 570735359 1569451679 -1559779673
            1997407319 1778889647 1944839087</internalNodes>
          <leafValues>
            -8.1313443183898926e-01 5.4582768678665161e-01</leafValues></_>
        <_>
          <internalNodes>
            0 -1 38 -92350244 -656507653 872665599 -556084513 -894805266
            -357858580 -658837346 -656474914</internalNodes>
          <leafValues>
            -7.5000363588333130e-01 5.5134212970733643e-01</leafValues></_>
        <_>
          <internalNodes>
            0 -1 20 -33703953 -71834829 -1414816885 -1151096285
            -111170625 -1120175193 -779370701 -574637289</internalNodes>
          <leafValues>
            -7.9016244411468506e-01 4.9750456213951111e-01</leafValues></_></weakClassifiers></_>
    <!-- stage 12 -->
    <_>
      <maxWeakCount>4</maxWeakCount>
      <stageThreshold>-1.6044330596923828e+00</stageThreshold>
      <weakClassifiers>
        <_>
          <internalNodes>
            0 -1 24 -1143737347 -782401517 329355707 -781107169
            -73157540 -203183429 -1141392504 -205521921</internalNodes>
          <leafValues>
            -8.0534350872039795e-01 5.2141678333282471e-01</leafValues></_>
        <_>
          <internalNodes>
            0 -1 11 -812648542 -2128477 1091639095 -3948389 -391118929
            -1472070 -917833729 2147482559</internalNodes>
          <leafValues>
            -8.0279904603958130e-01 4.8560240864753723e-01</leafValues></_>
        <_>
          <internalNodes>
            0 -1 40 -1077936386 -1281187640 163941264 -545784870
            -1014502449 -5389944 -371340833 -1828</internalNodes>
          <leafValues>
            -6.7542457580566406e-01 5.8153164386749268e-01</leafValues></_>
        <_>
          <internalNodes>
            0 -1 29 -332417169 -82074829 -1291641705 -284978939
            -76287085 -1210965583 -1549687885 -73932265</internalNodes>
          <leafValues>
            -6.4762622117996216e-01 6.7289632558822632e-01</leafValues></_></weakClassifiers></_>
    <!-- stage 13 -->
    <_>
      <maxWeakCount>4</maxWeakCount>
      <stageThreshold>-1.7827436923980713e+00</stageThreshold>
      <weakClassifiers>
        <_>
          <internalNodes>
            0 -1 25 -1590339 -779664933 -1740414753 -109718819
            -1323066428 791355886 -1064 2147482623</internalNodes>
          <leafValues>
            -8.1112545728683472e-01 5.1100242137908936e-01</leafValues></_>
        <_>
          <internalNodes>
            0 -1 2 -144744730 -305788005 -2143289208 -779956131
            -1187119040 -343736316 -1157081907 -573573633</internalNodes>
          <leafValues>
            -6.9825893640518188e-01 5.7434254884719849e-01</leafValues></_>
        <_>
          <internalNodes>
            0 -1 5 -625152641 -775749217 1917966459 -681836610
            -485538545 -2013200243 -940588582 -4195398</internalNodes>
          <leafValues>
            -7.7039515972137451e-01 5.4267334938049316e-01</leafValues></_>
        <_>
          <internalNodes>
            0 -1 7 -282464277 -1954160059 156241689 -712911627
            -1862140689 -1584232415 -754957317 2141972657</internalNodes>
          <leafValues>
            -8.3336549997329712e-01 4.9703583121299744e-01</leafValues></_></weakClassifiers></_></stages>
  <features>
    <_>
      <rect>
        0 2 5 2</rect></_>
    <_>
      <rect>
        0 5 2 4</rect></_>
    <_>
      <rect>
        0 8 1 4</rect></_>
    <_>
      <rect>
        1 7 3 1</rect></_>
    <_>
      <rect>
        1 7 4 1</rect></_>
    <_>
      <rect>
        2 4 3 5</rect></_>
    <_>
      <rect>
        2 5 3 4</rect></_>
    <_>
      <rect>
        3 4 2 1</rect></_>
    <_>
      <rect>
        3 6 4 3</rect></_>
    <_>
      <rect>
        3 7 3 2</rect></_>
    <_>
      <rect>
        4 1 5 4</rect></_>
    <_>
      <rect>
        4 3 2 1</rect></_>
    <_>
      <rect>
        4 7 3 2</rect></_>
    <_>
      <rect>
        4 8 1 2</rect></_>
    <_>
      <rect>
        4 12 2 1</rect></_>
    <_>
      <rect>
        5 5 2 4</rect></_>
    <_>
      <rect>
        5 6 5 4</rect></_>
    <_>
      <rect>
        5 7 5 2</rect></_>
    <_>
      <rect>
        6 0 3 4</rect></_>
    <_>
      <rect>
        6 1 3 5</rect></_>
    <_>
      <rect>
        6 1 3 6</rect></_>
    <_>
      <rect>
        6 8 1 1</rect></_>
    <_>
      <rect>
        7 1 3 2</rect></_>
    <_>
      <rect>
        7 6 4 3</rect></_>
    <_>
      <rect>
        7 7 4 1</rect></_>
    <_>
      <rect>
        7 9 1 1</rect></_>
    <_>
      <rect>
        7 11 4 3</rect></_>
    <_>
      <rect>
        8 1 3 2</rect></_>
    <_>
      <rect>
        9 0 2 5</rect></_>
    <_>
      <rect>
        9 1 2 5</rect></_>
    <_>
      <rect>
        9 3 3 4</rect></_>
    <_>
      <rect>
        9 7 2 1</rect></_>
    <_>
      <rect>
        10 9 1 3</rect></_>
    <_>
      <rect>
        11 5 2 4</rect></_>
    <_>
      <rect>
        12 2 2 3</rect></_>
    <_>
      <rect>
        12 3 2 2</rect></_>
    <_>
      <rect>
        13 3 2 4</rect></_>
    <_>
      <rect>
        13 9 1 2</rect></_>
    <_>
      <rect>
        14 0 2 2</rect></_>
    <_>
      <rect>
        14 0 2 6</rect></_>
    <_>
      <rect>
        17 8 1 4</rect></_>
    <_>
      <rect>
        17 10 1 3</rect></_></features></cascade>
</opencv_storage>
