<?xml version="1.0"?>
<opencv_storage>
<cascade>
  <stageType>BOOST</stageType>
  <featureType>LBP</featureType>
  <height>20</height>
  <width>24</width>
  <stageParams>
    <boostType>GAB</boostType>
    <minHitRate>9.9750000238418579e-01</minHitRate>
    <maxFalseAlarm>5.0000000000000000e-01</maxFalseAlarm>
    <weightTrimRate>9.4999999999999996e-01</weightTrimRate>
    <maxDepth>1</maxDepth>
    <maxWeakCount>100</maxWeakCount></stageParams>
  <featureParams>
    <maxCatCount>256</maxCatCount>
    <featSize>1</featSize></featureParams>
  <stageNum>13</stageNum>
  <stages>
    <!-- stage 0 -->
    <_>
      <maxWeakCount>2</maxWeakCount>
      <stageThreshold>-1.4568451046943665e-01</stageThreshold>
      <weakClassifiers>
        <_>
          <internalNodes>
            0 -1 22 -36175905 -686853689 -251543333 -540085925
            -929644069 -89423733 -492122486 -1048657</internalNodes>
          <leafValues>
            -9.8608475923538208e-01 9.3095511198043823e-01</leafValues></_>
        <_>
          <internalNodes>
            0 -1 17 -100925697 -14995445 -2009066279 -27618925
            -527723841 -1699082038 -630477345 -1050113</internalNodes>
          <leafValues>
            -9.9005174636840820e-01 8.4040021896362305e-01</leafValues></_></weakClassifiers></_>
    <!-- stage 1 -->
    <_>
      <maxWeakCount>3</maxWeakCount>
      <stageThreshold>-1.0641692876815796e+00</stageThreshold>
      <weakClassifiers>
        <_>
          <internalNodes>
            0 -1 26 -134217729 -6818849 -780308013 -33636405 -605552641
            -2692617 -3148081 -4181</internalNodes>
          <leafValues>
            -9.6308082342147827e-01 8.6803185939788818e-01</leafValues></_>
        <_>
          <internalNodes>
            0 -1 2 -33599745 -10473 -652347521 -262177 -117441537
            -70327669 -543166977 -50331649</internalNodes>
          <leafValues>
            -9.1419172286987305e-01 8.4706616401672363e-01</leafValues></_>
        <_>
          <internalNodes>
            0 -1 13 -134218753 -8719449 -2121321665 -2958854 -82071137
            -201343745 -572784645 -10223617</internalNodes>
          <leafValues>
            -9.0438872575759888e-01 8.1310325860977173e-01</leafValues></_></weakClassifiers></_>
    <!-- stage 2 -->
    <_>
      <maxWeakCount>2</maxWeakCount>
      <stageThreshold>-1.7239432036876678e-01</stageThreshold>
      <weakClassifiers>
        <_>
          <internalNodes>
            0 -1 27 -134251009 -67637249 -240388193 -101 -2098177
            -8002657 -68944129 -65569</internalNodes>
          <leafValues>
            -9.5399361848831177e-01 8.3954805135726929e-01</leafValues></_>
        <_>
          <internalNodes>
            0 -1 24 -2057 -209715273 -134756705 -2164769 -1120321
            -2098217 -3211281 -1048661</internalNodes>
          <leafValues>
            -9.6843016147613525e-01 7.8159928321838379e-01</leafValues></_></weakClassifiers></_>
    <!-- stage 3 -->
    <_>
      <maxWeakCount>3</maxWeakCount>
      <stageThreshold>-1.0152734518051147e+00</stageThreshold>
      <weakClassifiers>
        <_>
          <internalNodes>
            0 -1 6 -743966721 -2099713 -918047939 1069250463 -892620305
            -275037269 -124872449 -659493</internalNodes>
          <leafValues>
            -9.1029691696166992e-01 7.9700118303298950e-01</leafValues></_>
        <_>
          <internalNodes>
            0 -1 0 -136383489 -179613053 352339163 -2641441 -711728453
            -1712652151 -1044198449 -135009873</internalNodes>
          <leafValues>
            -9.2868113517761230e-01 7.5130295753479004e-01</leafValues></_>
        <_>
          <internalNodes>
            0 -1 7 -603979993 -11853805 285561235 -751705633 -263388671
            -2096693245 -633083669 -76283921</internalNodes>
          <leafValues>
            -8.5627949237823486e-01 8.5025197267532349e-01</leafValues></_></weakClassifiers></_>
    <!-- stage 4 -->
    <_>
      <maxWeakCount>3</maxWeakCount>
      <stageThreshold>-1.1586251258850098e+00</stageThreshold>
      <weakClassifiers>
        <_>
          <internalNodes>
            0 -1 12 -2099201 -97 2129592319 -9727249 -138159197
            -858173207 -83371009 -805309953</internalNodes>
          <leafValues>
            -8.5397964715957642e-01 8.6906290054321289e-01</leafValues></_>
        <_>
          <internalNodes>
            0 -1 23 -1148988493 -1556151909 -1627128909 -274885217
            -240387073 -40002639 -108405801 -67134469</internalNodes>
          <leafValues>
            -9.1641628742218018e-01 7.1226334571838379e-01</leafValues></_>
        <_>
          <internalNodes>
            0 -1 20 -27808201 -138694183 302783999 -16789289 -779931277
            -57997161 -112886149 -2081</internalNodes>
          <leafValues>
            -9.5495539903640747e-01 6.1177080869674683e-01</leafValues></_></weakClassifiers></_>
    <!-- stage 5 -->
    <_>
      <maxWeakCount>3</maxWeakCount>
      <stageThreshold>-1.1094350814819336e+00</stageThreshold>
      <weakClassifiers>
        <_>
          <internalNodes>
            0 -1 36 -3073 -536874305 -1014512673 -4206385 -606291522
            -1144329590 -91292677 -540026678</internalNodes>
          <leafValues>
            -8.6972707509994507e-01 7.7804297208786011e-01</leafValues></_>
        <_>
          <internalNodes>
            0 -1 32 -576727557 -216410681 -783835649 -1073769987
            -628503631 -49772494 -72642893 -1434453121</internalNodes>
          <leafValues>
            -9.3916815519332886e-01 6.6659992933273315e-01</leafValues></_>
        <_>
          <internalNodes>
            0 -1 5 -681575425 -44839949 -1827156609 -218901545
            -1349796865 -1190149725 -912658433 -67633161</internalNodes>
          <leafValues>
            -8.6103761196136475e-01 6.9946008920669556e-01</leafValues></_></weakClassifiers></_>
    <!-- stage 6 -->
    <_>
      <maxWeakCount>3</maxWeakCount>
      <stageThreshold>-1.2015779018402100e+00</stageThreshold>
      <weakClassifiers>
        <_>
          <internalNodes>
            0 -1 21 -144703489 -75233 -750451785 -81589 -1548491633
            -36715993 -248134885 -572522501</internalNodes>
          <leafValues>
            -8.8960206508636475e-01 7.1300446987152100e-01</leafValues></_>
        <_>
          <internalNodes>
            0 -1 9 526242303 -15879 356888891 -1310869294 -1985877125
            -67125058 791408383 -167908201</internalNodes>
          <leafValues>
            -9.0309011936187744e-01 5.9943127632141113e-01</leafValues></_>
        <_>
          <internalNodes>
            0 -1 30 -169910435 -242003685 -1291234849 -215081 -611582980
            -341892951 -84354819 -475906</internalNodes>
          <leafValues>
            -8.9468026161193848e-01 5.9111422300338745e-01</leafValues></_></weakClassifiers></_>
    <!-- stage 7 -->
    <_>
      <maxWeakCount>3</maxWeakCount>
      <stageThreshold>-1.0566089153289795e+00</stageThreshold>
      <weakClassifiers>
        <_>
          <internalNodes>
            0 -1 11 -18875393 -14705769 -780028481 -14955765 -121719873
            -82073589 -756814449 -570689027</internalNodes>
          <leafValues>
            -8.6833858489990234e-01 7.4269008636474609e-01</leafValues></_>
        <_>
          <internalNodes>
            0 -1 10 -136613377 -69501025 353228763 1068833235
            -1077939969 -272807795 1837628091 -1090649867</internalNodes>
          <leafValues>
            -8.9808481931686401e-01 6.4857023954391479e-01</leafValues></_>
        <_>
          <internalNodes>
            0 -1 35 -607920141 330357170 2139486679 1532875221
            -1075052557 -1140854613 -1836461129 -1677730829</internalNodes>
          <leafValues>
            -8.1166028976440430e-01 7.0981448888778687e-01</leafValues></_></weakClassifiers></_>
    <!-- stage 8 -->
    <_>
      <maxWeakCount>3</maxWeakCount>
      <stageThreshold>-1.1801193952560425e+00</stageThreshold>
      <weakClassifiers>
        <_>
          <internalNodes>
            0 -1 19 -2621441 -964775202 -645664461 -808496698 -80481285
            -905187277 -106171441 -5242913</internalNodes>
          <leafValues>
            -8.9763778448104858e-01 6.6738659143447876e-01</leafValues></_>
        <_>
          <internalNodes>
            0 -1 31 -207750151 -174603909 1359727071 -637550210
            -1962565383 -49552975 -307504449 -8406462</internalNodes>
          <leafValues>
            -8.8531708717346191e-01 6.6291320323944092e-01</leafValues></_>
        <_>
          <internalNodes>
            0 -1 1 -328193 -10525225 1090715687 -551563257 -413423457
            -1109454665 -977069361 -11276305</internalNodes>
          <leafValues>
            -9.0686923265457153e-01 6.0283541679382324e-01</leafValues></_></weakClassifiers></_>
    <!-- stage 9 -->
    <_>
      <maxWeakCount>3</maxWeakCount>
      <stageThreshold>-1.1936933994293213e+00</stageThreshold>
      <weakClassifiers>
        <_>
          <internalNodes>
            0 -1 29 861139967 1469522713 555996063 -25210785 -74204161
            -1089103457 -7672321 -9177985</internalNodes>
          <leafValues>
            -8.5390430688858032e-01 7.0301622152328491e-01</leafValues></_>
        <_>
          <internalNodes>
            0 -1 25 -241437697 -773869485 -586984101 -16805323
            -535652117 -17655295 -1846945 -540025633</internalNodes>
          <leafValues>
            -8.9337080717086792e-01 6.1704409122467041e-01</leafValues></_>
        <_>
          <internalNodes>
            0 -1 16 -631298 -149472969 -116194887 -4734961 -79770145
            -627093111 -82605669 -822084609</internalNodes>
          <leafValues>
            -9.7426515817642212e-01 5.5358165502548218e-01</leafValues></_></weakClassifiers></_>
    <!-- stage 10 -->
    <_>
      <maxWeakCount>4</maxWeakCount>
      <stageThreshold>-1.9589743614196777e+00</stageThreshold>
      <weakClassifiers>
        <_>
          <internalNodes>
            0 -1 25 968874495 -176687913 -1827553509 -16779301
            -401549377 -84217689 -4203717 -537928545</internalNodes>
          <leafValues>
            -9.1961854696273804e-01 6.1099797487258911e-01</leafValues></_>
        <_>
          <internalNodes>
            0 -1 15 -673710085 -203956237 -678954833 1006367665
            1491785629 -343286777 -473175089 -1035</internalNodes>
          <leafValues>
            -8.7142258882522583e-01 6.5714037418365479e-01</leafValues></_>
        <_>
          <internalNodes>
            0 -1 3 -8912905 -131073 -12 -6226062 -131073 -268500993 -1
            -278399113</internalNodes>
          <leafValues>
            -7.4742722511291504e-01 7.7310425043106079e-01</leafValues></_>
        <_>
          <internalNodes>
            0 -1 28 -709110277 -705188089 1367735803 -1362178069
            -1035091009 -1086666587 -1316488481 -1078990673</internalNodes>
          <leafValues>
            -9.5359289646148682e-01 5.7949399948120117e-01</leafValues></_></weakClassifiers></_>
    <!-- stage 11 -->
    <_>
      <maxWeakCount>3</maxWeakCount>
      <stageThreshold>-1.1469449996948242e+00</stageThreshold>
      <weakClassifiers>
        <_>
          <internalNodes>
            0 -1 4 -210632961 -15220289 -2125270689 -7781119 -72221765
            -12386149 -1154369089 -54796261</internalNodes>
          <leafValues>
            -9.2628651857376099e-01 5.7509881258010864e-01</leafValues></_>
        <_>
          <internalNodes>
            0 -1 18 -705595937 -33859617 -1224074627 -1078314669
            -668081665 -70059009 -49874805 -51055617</internalNodes>
          <leafValues>
            -9.2572420835494995e-01 5.7118868827819824e-01</leafValues></_>
        <_>
          <internalNodes>
            0 -1 33 -238302453 1933809150 -243199649 -106198538
            -384314629 1002426862 -239339109 -5808289</internalNodes>
          <leafValues>
            -7.9184722900390625e-01 7.2039997577667236e-01</leafValues></_></weakClassifiers></_>
    <!-- stage 12 -->
    <_>
      <maxWeakCount>3</maxWeakCount>
      <stageThreshold>-1.0089921951293945e+00</stageThreshold>
      <weakClassifiers>
        <_>
          <internalNodes>
            0 -1 8 -6291457 -150739657 -794578529 -11843237 -229158788
            -603384997 -305136915 -257</internalNodes>
          <leafValues>
            -8.4837090969085693e-01 7.0725995302200317e-01</leafValues></_>
        <_>
          <internalNodes>
            0 -1 34 -740296737 -73927717 -1818816417 -548414633
            -1187254827 -552083423 -1148212297 494927867</internalNodes>
          <leafValues>
            -9.1912335157394409e-01 5.7228982448577881e-01</leafValues></_>
        <_>
          <internalNodes>
            0 -1 14 -178782721 -2369601 -613821221 -5053953 348180191
            -53509713 -325336929 -267521</internalNodes>
          <leafValues>
            -7.3291116952896118e-01 7.6216638088226318e-01</leafValues></_></weakClassifiers></_></stages>
  <features>
    <_>
      <rect>
        0 0 3 5</rect></_>
    <_>
      <rect>
        0 0 4 6</rect></_>
    <_>
      <rect>
        0 0 6 3</rect></_>
    <_>
      <rect>
        0 1 1 4</rect></_>
    <_>
      <rect>
        0 2 6 3</rect></_>
    <_>
      <rect>
        0 10 3 2</rect></_>
    <_>
      <rect>
        0 10 4 3</rect></_>
    <_>
      <rect>
        0 11 1 2</rect></_>
    <_>
      <rect>
        0 12 1 2</rect></_>
    <_>
      <rect>
        0 12 7 2</rect></_>
    <_>
      <rect>
        0 14 4 2</rect></_>
    <_>
      <rect>
        1 0 2 3</rect></_>
    <_>
      <rect>
        1 3 3 2</rect></_>
    <_>
      <rect>
        1 6 3 3</rect></_>
    <_>
      <rect>
        1 7 3 3</rect></_>
    <_>
      <rect>
        1 10 2 3</rect></_>
    <_>
      <rect>
        2 0 3 4</rect></_>
    <_>
      <rect>
        2 7 6 2</rect></_>
    <_>
      <rect>
        2 13 4 2</rect></_>
    <_>
      <rect>
        3 4 2 2</rect></_>
    <_>
      <rect>
        5 2 6 1</rect></_>
    <_>
      <rect>
        5 4 2 3</rect></_>
    <_>
      <rect>
        5 5 5 5</rect></_>
    <_>
      <rect>
        6 17 6 1</rect></_>
    <_>
      <rect>
        7 7 5 4</rect></_>
    <_>
      <rect>
        7 10 3 2</rect></_>
    <_>
      <rect>
        8 8 4 4</rect></_>
    <_>
      <rect>
        9 0 5 4</rect></_>
    <_>
      <rect>
        9 11 3 3</rect></_>
    <_>
      <rect>
        11 9 4 2</rect></_>
    <_>
      <rect>
        12 7 4 2</rect></_>
    <_>
      <rect>
        12 11 3 3</rect></_>
    <_>
      <rect>
        12 14 4 2</rect></_>
    <_>
      <rect>
        13 11 2 2</rect></_>
    <_>
      <rect>
        15 13 3 2</rect></_>
    <_>
      <rect>
        15 17 3 1</rect></_>
    <_>
      <rect>
        18 9 2 2</rect></_></features></cascade>
</opencv_storage>
